digraph Tree {
node [shape=box, style="filled, rounded", color="black", fontname="helvetica"] ;
edge [fontname="helvetica"] ;
0 [label="CONICITY <= 0.5\nentropy = 1.6\nsamples = 66\nvalue = [27, 42, 36]\nclass = B", fillcolor="#eefdf4"] ;
1 [label="RRO <= 0.5\nentropy = 1.2\nsamples = 24\nvalue = [25, 12, 2]\nclass = A", fillcolor="#f2c2a0"] ;
0 -> 1 [labeldistance=2.5, labelangle=45, headlabel="True"] ;
2 [label="CONICITY <= 0.4\nentropy = 0.7\nsamples = 19\nvalue = [25, 6, 0]\nclass = A", fillcolor="#eb9f69"] ;
1 -> 2 ;
3 [label="H2RFV <= 0.6\nentropy = 0.9\nsamples = 10\nvalue = [11, 6, 0]\nclass = A", fillcolor="#f3c6a5"] ;
2 -> 3 ;
4 [label="entropy = 0.0\nsamples = 8\nvalue = [11, 0, 0]\nclass = A", fillcolor="#e58139"] ;
3 -> 4 ;
5 [label="entropy = 0.0\nsamples = 2\nvalue = [0, 6, 0]\nclass = B", fillcolor="#39e581"] ;
3 -> 5 ;
6 [label="entropy = 0.0\nsamples = 9\nvalue = [14, 0, 0]\nclass = A", fillcolor="#e58139"] ;
2 -> 6 ;
7 [label="entropy = 0.8\nsamples = 5\nvalue = [0, 6, 2]\nclass = B", fillcolor="#7beeab"] ;
1 -> 7 ;
8 [label="RRO <= 0.7\nentropy = 1.2\nsamples = 42\nvalue = [2, 30, 34]\nclass = C", fillcolor="#f1e9fc"] ;
0 -> 8 [labeldistance=2.5, labelangle=-45, headlabel="False"] ;
9 [label="PLY <= 0.7\nentropy = 1.2\nsamples = 30\nvalue = [2, 30, 18]\nclass = B", fillcolor="#b5f5d0"] ;
8 -> 9 ;
10 [label="H2RFV <= 0.7\nentropy = 1.1\nsamples = 24\nvalue = [1, 23, 18]\nclass = B", fillcolor="#d6fae5"] ;
9 -> 10 ;
11 [label="H2RFV <= 0.3\nentropy = 0.7\nsamples = 17\nvalue = [1, 23, 3]\nclass = B", fillcolor="#5ae996"] ;
10 -> 11 ;
12 [label="CONICITY <= 0.8\nentropy = 1.1\nsamples = 10\nvalue = [1, 11, 3]\nclass = B", fillcolor="#7beeab"] ;
11 -> 12 ;
13 [label="entropy = 0.4\nsamples = 6\nvalue = [1, 10, 0]\nclass = B", fillcolor="#4de88e"] ;
12 -> 13 ;
14 [label="entropy = 0.8\nsamples = 4\nvalue = [0, 1, 3]\nclass = C", fillcolor="#ab7bee"] ;
12 -> 14 ;
15 [label="entropy = 0.0\nsamples = 7\nvalue = [0, 12, 0]\nclass = B", fillcolor="#39e581"] ;
11 -> 15 ;
16 [label="entropy = 0.0\nsamples = 7\nvalue = [0, 0, 15]\nclass = C", fillcolor="#8139e5"] ;
10 -> 16 ;
17 [label="entropy = 0.5\nsamples = 6\nvalue = [1, 7, 0]\nclass = B", fillcolor="#55e993"] ;
9 -> 17 ;
18 [label="entropy = 0.0\nsamples = 12\nvalue = [0, 0, 16]\nclass = C", fillcolor="#8139e5"] ;
8 -> 18 ;
}